svm_type c_svc
kernel_type rbf
gamma 0.001953125
nr_class 2
total_sv 37
rho -7.9024912329180603
label 1 0
probA -0.82300080025829481
probB -0.13551938783977249
nr_sv 18 19
SV
229.91900614382604 1:-0.436364 2:0.0197284 3:0.146516 4:-0.425827 5:0.381702 6:-0.526578 7:-0.231043 8:0.237244 9:-0.239345 10:-1 11:-0.160661 12:-0.398283 13:-0.4734 14:-0.503221 15:-0.125128 16:0.0321101 17:0.767307 18:0.282914 19:0.225409 20:0.363462 21:0.779979 22:0.174603 23:-0.634903 24:-0.515244 25:1 26:0.179609 27:0.833015 28:-1 29:0.381257 30:-0.114701 31:-0.552204 32:-0.0474289 33:-0.51575 34:-0.0915149 35:-0.978942 
120.88787146307506 1:-0.219866 2:-0.570919 3:0.116194 4:-0.976707 5:0.567003 6:0.134051 7:0.0532363 8:-0.479264 9:-0.466465 10:-0.59638 11:-0.762008 12:-0.705155 13:-0.566781 14:-0.274704 15:-0.155363 16:0.0135135 17:1 18:0.00111982 19:0.454855 20:-0.253815 21:0.726031 22:-0.135065 23:-0.327407 24:-0.0867891 25:0.17619 26:-0.564256 27:-0.0981957 28:-0.495495 29:1 30:0.414764 31:-0.150061 32:0.359025 33:-0.314921 34:-0.406441 35:-0.32345 
364.52291595015373 1:0.0222222 2:-0.0646123 3:-0.256803 4:0.576711 5:1 6:-0.814935 7:-0.95613 8:-0.495637 9:0.371646 10:-0.598198 11:0.213792 12:-0.707741 13:0.453791 14:-0.021444 15:-0.162749 16:0.00896861 17:-0.12559 18:-0.254199 19:-0.117861 20:-0.0244068 21:0.712846 22:-0.425986 23:0.325879 24:-0.541 25:0.169157 26:0.0601733 27:-0.398915 28:0.0044843 29:-0.968936 30:-0.152714 31:0.269166 32:-0.320566 33:-0.546666 34:-0.412776 35:1 
51.772153598795597 1:-0.105485 2:0.364858 3:-0.4956 4:-0.0501356 5:-0.608197 6:0.0178571 7:-0.743342 8:-0.379935 9:0.500135 10:-0.237607 11:0.257227 12:-0.462041 13:-0.848218 14:0.101698 15:0.520606 16:-0.521277 17:0.0518962 18:0.625951 19:0.550013 20:-0.690665 21:-0.362454 22:-0.183323 23:0.521286 24:0.250075 25:0.0894516 26:-0.664358 27:0.913999 28:0.429787 29:-0.384079 30:-0.237401 31:-0.460527 32:-0.844559 33:-0.189121 34:-0.484613 35:0.864806 
226.78464644701964 1:2.22045e-16 2:-1 3:0.0941597 4:0.553315 5:-0.560878 6:-0.669884 7:1 8:-0.3706 9:0.440627 10:-0.203571 11:0.510815 12:0.435768 13:-0.462281 14:0.73913 15:0.223467 16:-0.5 17:-0.967774 18:-0.758029 19:0.136872 20:-0.28584 21:-0.76365 22:-1 23:0.960178 24:0.335294 25:-0.614907 26:-0.305684 27:-0.702153 28:-0.00444444 29:-0.32835 30:0.108855 31:-0.388028 32:0.102977 33:0.777336 34:0.974995 35:0.317647 
512 1:0.567568 2:0.249361 3:0.131217 4:-0.96709 5:0.362896 6:-0.00559579 7:0.0806432 8:0.0366581 9:-0.163242 10:-1 11:-0.186486 12:0.180952 13:0.184605 14:-0.610291 15:0.269641 16:-1 17:0.179556 18:0.0147409 19:0.19954 20:0.254896 21:0.0110375 22:-0.418087 23:-0.312323 24:-0.0724326 25:-0.203437 26:-0.0322795 27:0.214756 28:-0.490909 29:0.3628 30:0.152416 31:-1 32:0.157629 33:0.154889 34:-0.679989 35:0.362364 
314.50347143093995 1:0.526667 2:-0.324864 3:-0.256803 4:0.576711 5:0.335329 6:-0.62987 7:0.039718 8:-0.495637 9:0.277581 10:-1 11:0.213792 12:-0.418035 13:-0.241803 14:0.32953 15:-0.162749 16:0.00896861 17:-0.682033 18:-0.254199 19:1 20:-0.584824 21:0.712846 22:0.148028 23:-0.0044843 24:-0.764565 25:0.557719 26:-0.42354 27:0.186557 28:0.0044843 29:0.988085 30:0.96233 31:0.055196 32:-0.543122 33:0.127317 34:0.152334 35:-0.329412 
35.109330585373591 1:-0.742257 2:-0.210564 3:0.101439 4:0.0479231 5:-0.776465 6:0.27117 7:-0.30414 8:-0.511866 9:-0.483338 10:-1 11:-0.563848 12:-0.133457 13:0.0802599 14:-0.469252 15:-0.975279 16:-1 17:-0.687068 18:-0.259748 19:-0.407263 20:1 21:-0.271523 22:1 23:-1 24:-0.768575 25:0.162187 26:-0.284091 27:-0.405509 28:-0.5 29:-0.322499 30:0.117413 31:0.471623 32:1 33:-0.105368 34:-0.137756 35:-0.33532 
457.98556877213719 1:-0.0643777 2:-0.443056 3:-0.124654 4:-0.0155726 5:-0.162202 6:-0.428571 7:0.256207 8:-0.468266 9:0.186366 10:-1 11:-0.00335404 12:-0.447876 13:-0.429311 14:0.316119 15:0.170732 16:-0.512987 17:-0.721081 18:-0.297247 19:0.874722 20:-0.424705 21:0.140545 22:0.107923 23:-0.0731313 24:-0.795669 25:0.115096 26:-0.431285 27:-0.167539 28:-0.030303 29:0.267077 30:0.866618 31:-0.0192284 32:-0.174424 33:0.274173 34:0.356943 35:-0.375254 
236.31695244759791 1:0.0110619 2:-0.858262 3:0.283416 4:0.0479231 5:0.105752 6:-0.649968 7:-0.30414 8:0.120331 9:-0.296048 10:1 11:-0.563848 12:-0.133457 13:0.0802599 14:-0.381904 15:0.232535 16:0.00446429 17:-0.687068 18:0.977704 19:0.427407 20:-0.27526 21:-1 22:-0.428571 23:-0.342222 24:-0.768575 25:-0.224633 26:-0.444602 27:-0.114091 28:1 29:0.976278 30:-0.715169 31:0.684633 32:-0.107857 33:0.565606 34:0.987442 35:-0.33532 
228.89199321550109 1:0.0222222 2:-0.845366 3:0.474369 4:0.0573238 5:0.335329 6:-1 7:-0.624181 8:-0.019373 9:0.183516 10:-1 11:-0.224343 12:-0.128329 13:0.627689 14:0.154043 15:-0.567184 16:-0.495516 17:-0.682033 18:-0.0055991 19:0.720535 20:-0.424705 21:-0.262812 22:-0.138979 23:0.325879 24:-0.764565 25:-0.219406 26:-0.42354 27:-0.398915 28:0.0044843 29:-0.316596 30:0.404808 31:0.911077 32:0.124546 33:-0.0973442 34:0.152334 35:0.335294 
512 1:-0.508772 2:-0.113409 3:-0.814887 4:-0.483025 5:-0.128649 6:0.223254 7:-0.327639 8:-0.0739231 9:-0.0358303 10:-1 11:0.279119 12:-0.715365 13:0.544218 14:0.118789 15:0.214481 16:-0.502212 17:-0.148047 18:-0.270699 19:-0.702646 20:0.256683 21:-0.0480377 22:-0.15051 23:-0.356775 24:0.326431 25:-0.61833 26:0.15015 27:-0.418518 28:-0.00884956 29:-0.334148 30:0.100372 31:-0.395568 32:-0.346921 33:0.100477 34:0.962658 35:0.964861 
405.14411920738297 1:-0.482222 2:-0.194738 3:0.474369 4:-0.98145 5:-0.107784 6:0.11039 7:0.039718 8:-0.336883 9:-0.192744 10:-1 11:-0.772011 12:-0.128329 13:-0.0679046 14:-0.196931 15:-0.971619 16:-0.495516 17:0.152632 18:0.243001 19:0.441069 20:-0.264585 21:0.468932 22:-0.138979 23:-0.0044843 24:-0.0938703 25:-0.219406 26:-0.746015 27:0.186557 28:-0.497758 29:0.988085 30:0.126047 31:-0.372745 32:0.347103 33:0.127317 34:-0.412776 35:0.335294 
424.20760961178934 1:2.22045e-16 2:-0.742083 3:1 4:-0.476101 5:0.536926 6:-0.486486 7:0.0130435 8:-0.6853 9:0.0677115 10:-1 11:-0.031919 12:-0.425693 13:-0.11759 14:-0.217391 15:-0.578115 16:-0.5 17:-0.140629 18:-0.265248 19:0.136872 20:0.190266 21:-0.521903 22:0.991031 23:-0.349531 24:-0.55098 25:-0.614907 26:0.972648 27:-0.992264 28:-0.00444444 29:-0.32835 30:0.108855 31:0.248151 32:0.764763 33:0.109344 34:-0.425279 35:-0.341176 
512 1:-0.473214 2:-0.440202 3:-0.0674226 4:-0.454948 5:-0.100703 6:0.691781 7:0.386688 8:0.158603 9:-0.0885098 10:-1 11:-0.321873 12:-0.414155 13:0.306646 14:0.0778656 15:-0.155363 16:-0.493243 17:0.720508 18:-0.2486 19:-0.106583 20:-0.173397 21:0.481017 22:-0.711688 23:0.336296 24:0.137787 25:-0.604452 26:0.245597 27:-0.686329 28:-0.495495 29:-0.965957 30:0.134758 31:-0.579938 32:-0.535174 33:-0.0892483 34:-0.122619 35:-0.32345 
171.16635763087339 1:-0.517467 2:-0.768448 3:0.438938 4:-1 5:-0.35308 6:-0.527423 7:-0.0131589 8:-0.403727 9:-0.323275 10:-1 11:-0.488397 12:0.136075 13:-0.508037 14:-0.237488 15:0.205575 16:0.982379 17:-0.428652 18:-0.764542 19:0.112575 20:-0.306722 21:-0.536813 22:0.691429 23:-0.688497 24:-0.121569 25:0.141648 26:-0.348295 27:-0.137405 28:-0.0132159 29:-0.339894 30:-0.181929 31:0.437692 32:0.519122 33:0.0916878 34:-0.437562 35:-0.352735 
128.01843373150004 1:-0.517467 2:-0.00157362 3:-0.458922 4:0.0202247 5:0.299722 6:0.563138 7:-0.0131589 8:1 9:0.693207 10:-0.60531 11:0.479802 12:-0.433216 13:0.346066 14:0.710531 15:0.205575 16:-1 17:-0.701906 18:-0.276102 19:0.112575 20:-0.228067 21:-0.536813 22:-0.154286 23:-0.363955 24:-0.780392 25:0.523333 26:0.760303 27:-1 28:-0.0132159 29:-0.980585 30:0.913638 31:-0.403041 32:-0.355553 33:-0.570419 34:-0.159964 35:-0.352735 
454.60771493515927 1:-0.5 2:-0.226248 3:0.0941597 4:-0.476101 5:-0.121756 6:-0.303089 7:0.342029 8:-1 9:-0.58489 10:-0.601786 11:-0.466107 12:-0.138539 13:-0.806973 14:-0.391304 15:-0.177324 16:-0.5 17:-0.416344 18:-0.0188578 19:0.136872 20:0.42832 21:-0.521903 22:0.706598 23:-0.0221037 24:-0.772549 25:-0.229814 26:-0.305684 27:-0.412043 28:-0.00444444 29:0.964577 30:-0.16745 31:0.0360915 32:0.102977 33:-0.558648 34:0.134831 35:-1 
-115.19191107630206 1:-0.259868 2:-0.370175 3:-0.634521 4:0.0293747 5:0.0899278 6:-0.324471 7:-0.000115942 8:-0.0739231 9:0.335435 10:-0.603556 11:0.0629987 12:-0.143577 13:-0.142101 14:0.55163 15:-0.583507 16:-0.00442478 17:-0.971483 18:-0.270699 19:0.400442 20:-0.375329 21:-0.288714 22:-0.433673 23:-0.356775 24:-0.555904 25:0.148433 26:0.15015 27:-0.418518 28:-0.00884956 29:-0.334148 30:0.375465 31:-0.184451 32:-0.346921 33:0.322156 34:0.683837 35:-0.346981 
-433.95464735790404 1:0.486842 2:-0.626941 3:-0.273788 4:0.0293747 5:0.745657 6:-0.141896 7:-0.327639 8:-0.543893 9:0.428251 10:-1 11:-0.0450615 12:-0.143577 13:0.544218 14:0.465062 15:0.613475 16:-0.502212 17:-0.697004 18:-0.270699 19:0.676214 20:-0.217326 21:-0.288714 22:-0.15051 23:-0.0307965 24:-0.776488 25:0.148433 26:-0.168007 27:-0.129703 28:-0.00884956 29:-0.334148 30:0.375465 31:-0.606685 32:-0.127294 33:0.322156 34:0.683837 35:-0.346981 
-381.31332462544299 1:-0.25 2:0.031669 3:0.0941597 4:0.0386071 5:-0.560878 6:-0.119691 7:-0.644928 8:-0.6853 9:0.16094 10:-1 11:0.185175 12:-0.138539 13:0.571793 14:0.0434783 15:-0.177324 16:-1 17:-0.140629 18:-0.0188578 19:0.136872 20:-0.28584 21:0.445082 22:0.137732 23:0.960178 24:0.113725 25:-0.229814 26:-0.145893 27:0.7484 28:-0.502222 29:0.964577 30:0.38516 31:-0.388028 32:-0.558809 33:0.109344 34:-0.145224 35:0.317647 
-371.95425827900738 1:0.0110619 2:0.307594 3:0.465392 4:0.0479231 5:0.105752 6:0.27117 7:-0.634601 8:-0.037718 9:-0.202402 10:-1 11:0.0903804 12:-0.710305 13:0.772734 14:-0.381904 15:-0.17007 16:-0.497768 17:0.143819 18:-0.012258 19:0.149183 20:0.442074 21:0.214128 22:0.714286 23:-0.671111 24:-0.768575 25:-0.611453 26:1 27:-0.405509 28:-0.5 29:0.326889 30:-0.160114 31:0.471623 32:0.335286 33:-1 34:-0.137756 35:-0.997072 
-58.302832596264281 1:0.21413 2:1 3:-0.821216 4:0.0111561 5:-0.792149 6:0.538095 7:-1 8:0.35637 9:0.311824 10:-0.214097 11:0.464502 12:-0.720337 13:-0.360544 14:0.0958061 15:0.592195 16:-1 17:0.381391 18:0.447987 19:0.920676 20:-0.395338 21:-0.305604 22:-0.438685 23:0.598285 24:0.0902997 25:0.134922 26:-0.211648 27:1 28:-0.0175439 29:-0.345589 30:-0.461775 31:-0.619706 32:-0.581828 33:0.0829758 34:-0.167237 35:-0.358438 
-146.1120510370331 1:-1 2:-0.0972896 3:-0.449344 4:-0.476101 5:-0.780439 6:0.247104 7:-0.644928 8:-0.0559006 9:0.627085 10:-1 11:0.185175 12:-0.138539 13:0.744139 14:0.478261 15:-0.177324 16:-1 17:0.135086 18:-0.0188578 19:-0.694104 20:-0.127138 21:0.203336 22:-0.715567 23:-0.0221037 24:-0.107843 25:-1 26:-0.305684 27:0.168179 28:-0.502222 29:0.318114 30:-0.443755 31:0.0360915 32:-0.779405 33:0.109344 34:0.134831 35:0.317647 
-50.851485548461895 1:0.0222222 2:0.325765 3:0.108783 4:-0.98145 5:0.335329 6:-0.25974 7:0.039718 8:-0.178128 9:-0.098679 10:0.205405 11:-0.44341 12:-0.128329 13:0.627689 14:-0.986622 15:0.241685 16:0.513453 17:-0.403811 18:0.243001 19:0.161604 20:0.295832 21:0.225017 22:-0.138979 23:-0.334848 24:-0.764565 25:0.557719 26:0.0601733 27:-0.398915 28:-0.497758 29:0.335745 30:0.126047 31:-0.372745 32:0.124546 33:-0.771327 34:-0.130221 35:0.335294 
-512 1:0.202381 2:-0.667662 3:0.243683 4:0.507766 5:-0.148959 6:-0.567636 7:0.284312 8:-0.281664 9:-0.0662287 10:-0.608772 11:-0.403668 12:0.405934 13:-0.55299 14:-0.0863819 15:-0.205698 16:-0.0174672 17:0.642597 18:-0.0446804 19:0.360875 20:-0.24927 21:0.161109 22:-0.161737 23:-0.378127 24:-0.352735 25:-0.250082 26:-0.23318 27:-0.152604 28:-0.0218341 29:-0.351233 30:-0.196157 31:-0.209451 32:0.49451 33:0.07434 34:-0.449631 35:0.930639 
-263.45550539651737 1:-0.209641 2:-0.556594 3:0.123671 4:-0.447768 5:-0.093556 6:-0.0288336 7:-0.603057 8:0.0178128 9:0.0166676 10:-1 11:-0.420298 12:-0.117936 13:0.684601 14:0.266627 15:-0.964198 16:-0.49095 17:-0.952597 18:0.5096 19:0.468764 20:0.0801756 21:-0.491275 22:-0.131115 23:-0.319899 24:-0.530838 25:0.183286 26:0.270003 27:-0.680958 28:0.0135747 29:-0.304626 30:-0.137713 31:0.290563 32:-0.0780497 33:0.145615 34:0.170153 35:0.353259 
-97.462266809389476 1:-0.551502 2:-0.066317 3:0.404734 4:-0.516736 5:-0.589768 6:1 7:-0.0641966 8:-0.161705 9:0.367981 10:-1 11:-0.426116 12:-0.168117 13:-0.597161 14:-0.107272 15:-1 16:0.461039 17:-0.184163 18:-0.537238 19:0.0652365 20:-0.115509 21:-0.0949227 22:0.107923 23:-0.392054 24:0.0674851 25:-0.634999 26:-0.120075 27:0.39748 28:-0.515152 29:0.896529 30:0.597428 31:-0.0192284 32:0.0404908 33:0.0572926 34:0.629755 35:0.266531 
-219.81317109683098 1:0.0678733 2:-0.395024 3:-0.0473003 4:-0.433208 5:0.823575 6:-0.170635 7:-0.243505 8:-0.914173 9:-0.0574451 10:-1 11:-0.508319 12:0.187595 13:0.21129 14:-0.512322 15:-0.132791 16:-1 17:0.472071 18:-0.231496 19:-0.0721308 20:0.431205 21:0.0211981 22:-0.707702 23:0.368118 24:0.162511 25:0.197675 26:-0.00892857 27:-0.371935 28:0.0228311 29:-0.292435 30:0.161365 31:-0.12344 32:0.168856 33:-0.293281 34:-0.38709 35:-0.305241 
-454.93876656166856 1:-0.25 2:-1 3:-0.0870083 4:-0.990809 5:0.317365 6:-0.303089 7:0.342029 8:-0.6853 9:0.16094 10:-1 11:-0.249013 12:0.148615 13:-0.462281 14:0.0434783 15:-0.978906 16:-1 17:0.135086 18:-0.0188578 19:0.413865 20:-0.127138 21:-0.521903 22:-0.431134 23:-0.676958 24:0.113725 25:-0.229814 26:0.0138988 27:-0.702153 28:0.991111 29:0.964577 30:-0.16745 31:-0.388028 32:0.102977 33:0.332008 34:-0.425279 35:0.317647 
-381.03324890618745 1:-0.25 2:-0.355207 3:-0.0870083 4:-0.990809 5:0.0978044 6:0.0637066 7:0.0130435 8:0.101449 9:-0.211975 10:-1 11:-0.031919 12:0.148615 13:-0.289936 14:-0.130435 15:-0.177324 16:-0.5 17:0.686516 18:-0.265248 19:-0.14012 20:-0.206489 21:0.686829 22:0.137732 23:0.305323 24:-0.107843 25:0.15528 26:0.17369 27:-0.412043 28:-0.502222 29:-0.974813 30:0.108855 31:-0.388028 32:-0.558809 33:-0.11332 34:-0.145224 35:0.317647 
-127.79094303426565 1:-0.445701 2:-0.262499 3:-0.0473003 4:-0.962214 5:-0.530384 6:0.394841 7:0.432575 8:-0.105966 9:-0.153228 10:-0.590826 11:-0.396757 12:-0.402305 13:-0.142888 14:-0.601683 15:-0.132791 16:-0.486301 17:-0.37805 18:-0.231496 19:-0.0721308 20:0.431205 21:-0.475541 22:-0.707702 23:-0.641076 24:-0.975823 25:-0.198017 26:-0.501558 27:0.224329 28:0.0228311 29:0.371986 30:-0.406247 31:-0.559232 32:0.168856 33:-0.522046 34:-0.38709 35:-0.305241 
-279.73242781916287 1:-0.219866 2:-0.440202 3:-0.0674226 4:-0.976707 5:-0.100703 6:0.319961 7:0.386688 8:-0.319797 9:-0.466465 10:-0.59638 11:-0.651974 12:-0.123156 13:-0.741466 14:-0.53913 15:0.6572 16:-1 17:-0.117967 18:-0.49832 19:-0.106583 20:0.228696 21:0.236004 22:-0.423377 23:1 24:0.137787 25:-0.214131 26:-0.240315 27:0.489938 28:-0.495495 29:1 30:0.414764 31:0.064878 32:0.582575 33:-0.540594 34:0.161204 35:-0.32345 
-512 1:0.25 2:-0.871041 3:-0.0870083 4:-0.476101 5:0.756487 6:-0.486486 7:0.0130435 8:-0.213251 9:-0.211975 10:-0.601786 11:0.0766279 12:-1 13:-0.462281 14:0.391304 15:-0.578115 17:-0.416344 18:-0.0188578 19:0.967849 20:-0.682596 21:0.445082 22:-0.431134 23:0.305323 24:-0.55098 25:-0.229814 26:0.17369 27:-0.702153 28:-0.502222 29:-0.974813 30:0.661464 31:-0.175968 32:-0.117618 33:0.554672 34:0.69494 35:0.317647 
-89.257243865266105 1:-0.240044 2:-0.469643 3:0.283416 4:0.0479231 5:0.105752 6:-0.0972851 7:0.0263209 8:-0.669915 9:-0.576983 10:-0.2 11:-1 12:0.443392 13:-0.612214 14:-0.993341 15:0.63514 16:0.00446429 17:0.420782 18:-0.507239 19:0.149183 20:0.282666 21:-0.0286976 22:-0.142857 23:0.315556 24:0.344236 25:-0.611453 26:0.518466 27:-0.988343 28:0.5 29:0.976278 30:-0.160114 31:0.471623 32:0.335286 33:-0.329026 34:-0.419055 35:-0.33532 
-512 1:-0.517467 2:-0.129386 3:-0.0997779 4:-0.489888 5:-0.135479 6:-0.527423 7:0.312915 8:-0.715666 9:-0.323275 10:-0.60531 11:-0.38082 12:-0.433216 13:0.00442478 14:-0.323671 15:0.205575 16:-0.00881057 17:-0.428652 18:-0.276102 19:0.112575 20:0.479828 21:-0.0575799 22:0.127619 23:-0.363955 24:-1 25:0.141648 26:-0.665038 27:-0.137405 28:-0.0132159 29:0.300798 30:0.365854 31:-0.613224 32:-0.355553 33:-0.349717 34:0.117634 35:-0.352735 
-378.67406116142041 1:-0.219866 2:-0.0480508 3:0.116194 4:-0.454948 5:-0.54584 6:-0.609589 7:0.0532363 8:0.158603 9:0.194956 10:-0.19276 11:0.558398 12:-0.705155 13:0.13196 14:-0.186561 15:0.250919 16:0.52027 17:-0.676951 18:-0.74804 19:-0.106583 20:-0.253815 21:-0.00900901 22:0.72987 23:-0.327407 24:-0.760518 25:-0.214131 26:0.569538 27:-0.392262 28:0.00900901 29:0.344681 30:0.414764 31:0.709693 32:0.582575 33:-0.0892483 34:0.445026 35:-0.991137 
