svm_type c_svc
kernel_type rbf
gamma 0.0078125
nr_class 2
total_sv 41
rho -3.6813960588253227
label 1 0
probA -0.69148874586729892
probB -0.062134909109953368
nr_sv 22 19
SV
63.959151119001703 1:0.164447 2:-0.522784 3:-0.437112 4:-0.534547 5:0.0368938 6:-0.660578 7:0.108372 8:0.195244 9:0.668191 10:-0.478217 11:-0.26041 12:0.336323 13:-0.960677 14:0.503268 15:0.238095 16:0.164649 17:-0.254296 18:-0.117075 19:-0.174449 20:-0.333333 21:0.262867 22:-0.410886 23:0.0331229 24:-0.536287 25:-0.0110935 26:-0.372803 27:-0.397459 28:-0.112845 29:-0.98211 30:-0.00900901 31:-0.212962 
23.514165982820309 1:0.600976 2:-0.190551 3:0.0913642 4:0.278243 5:0.00955098 6:0.675703 7:-0.128656 8:0.408907 9:-0.472533 10:-0.487043 11:0.359307 12:-0.351163 13:-0.0214494 14:-0.00884956 15:-0.0457516 16:-0.136077 17:0.480363 18:-0.132308 19:-0.0430804 20:-0.339233 21:-0.436901 22:0.445862 23:0.659226 24:-0.313734 25:-0.180774 26:0.00192761 27:0.974707 28:0.151 29:-0.72343 30:0.473214 31:0.273857 
26.135790833799216 1:0.153072 2:-0.890369 3:0.102376 4:0.65908 5:-0.899639 6:-0.3273 7:-0.565415 8:-0.758864 9:-0.685709 10:-0.976866 11:-0.056431 12:-0.339312 13:-0.142535 14:-0.248453 15:0.221934 16:-0.402196 17:-0.010186 18:-0.693407 19:0.153476 20:-1 21:-0.252074 22:-0.708738 23:-0.304843 24:-0.307522 25:1 26:0.216445 27:0.152632 28:-0.120381 29:-0.184343 30:-0.506726 31:-0.722445 
51.333458880907557 1:-0.29885 2:-0.522784 3:0.939384 4:0.315089 5:-0.27208 6:-0.660578 7:-0.114535 8:-0.515556 9:-0.45252 10:-0.478217 11:0.170532 12:0.0044843 13:-0.543103 14:0.254902 15:-0.777778 16:0.443099 17:-0.00343643 18:-0.402691 19:-0.349869 20:1 21:-0.558214 22:0.174274 23:0.360803 24:-0.77132 25:-0.140647 26:-0.0706595 27:1 28:-0.112845 29:0.627994 30:-0.00900901 31:0.0395043 
54.613941174159507 1:-0.0979511 2:-0.203219 3:-0.734435 4:-0.218968 5:-0.00393973 6:-0.00456621 7:-0.135621 8:0.631201 9:-0.0400986 10:-0.491397 11:-0.398046 12:0.946669 13:-1 14:-0.0164406 15:0.69112 16:0.127686 17:-0.766048 18:0.987474 19:-0.410953 20:-1 21:-0.296057 22:0.146845 23:-0.325141 24:-0.783744 25:-0.0727313 26:-0.409386 27:-0.967774 28:-0.41287 29:-0.7282 30:-0.0222222 31:0.514007 
4.3448167858714317 1:-0.0462377 2:-0.499904 3:0.136011 4:0.965006 5:0.688243 6:-0.651237 7:-1 8:-0.022304 9:-0.658324 10:0.0316932 11:0.739298 12:0.0317587 13:0.330354 14:0.0221987 15:-0.113598 16:0.189848 17:0.0102468 18:-0.677967 19:0.22285 20:-1 21:-0.0188616 22:0.192978 23:0.387613 24:-0.5257 25:0.0309239 26:-0.144578 27:0.179556 28:0.186329 29:0.379339 30:-0.5 31:0.0556438 
65.001131131762065 1:0.119546 2:-0.567324 3:0.0696335 4:-0.115637 5:-0.320865 6:-0.345401 7:-0.142524 8:-0.079431 9:-0.0518413 10:-0.495713 11:0.121389 12:0.603269 13:-0.739462 14:-1 15:-0.449213 16:0.115583 17:-0.276495 18:0.133311 19:-0.086349 20:-0.345029 21:-0.317755 22:1 23:0.308606 24:0.135824 25:0.416206 26:-0.322446 27:0.949867 28:-0.418985 29:-0.20581 30:0.460177 31:0.504043 
0.5372153013459533 1:-0.362301 2:-0.946627 3:0.571517 4:-0.0463905 5:-0.356345 6:-0.0340689 7:0.269141 8:-0.336563 9:-0.303745 10:-0.0271111 11:-0.0188215 12:-0.408858 13:0.702873 14:0.676372 15:0.251018 16:-1 17:0.193745 18:-1 19:0.0202059 20:-0.353535 21:0.0957573 22:0.111395 23:-1 24:-0.571898 25:-0.152425 26:-0.749485 27:0.100927 28:-0.437011 29:0.0333671 30:-1 31:0.229962 
5.9211611995183997 1:-0.137703 2:0.0941438 3:0.0377492 4:-0.164057 5:0.242876 6:-0.363024 7:-0.162865 8:-0.336563 9:0.130837 10:-0.989759 11:-0.332234 12:0.234443 13:-0.646117 14:-0.0461478 15:0.127967 16:0.349879 17:-0.292636 18:0.384615 19:0.0202059 20:-1 21:-0.540852 22:-0.172202 23:0.270655 24:0.111834 25:0.0988308 26:-0.0662227 27:-0.440743 28:0.381355 29:-0.226709 30:0.441048 31:-0.504185 
89.325695514440355 1:0.844914 2:0.534831 3:0.924569 4:-0.549243 5:0.638362 6:-0.665186 7:-0.343522 8:-0.0512518 9:-0.239435 10:0.0115668 11:-0.378201 12:-0.00896861 13:-0.281096 14:0.740595 15:0.348341 16:0.98384 17:-0.25992 18:0.159615 19:-0.545043 20:0.327407 21:-0.415547 22:-1 23:0.673789 24:-0.307522 25:-0.547733 26:-0.886402 27:-0.682033 28:0.159714 29:0.34993 30:0.479821 31:-0.722445 
128 1:-0.40531 2:-0.312338 3:-0.535937 4:0.448915 5:-1 6:0.896079 7:0.649718 8:-0.825392 9:-0.14217 10:-1 11:0.539389 12:-0.464077 13:1 14:0.625346 15:0.414554 16:-0.770233 17:-0.0806238 18:0.0664484 19:0.579933 20:-1 21:0.138289 22:0.0687945 23:-0.723062 24:-0.372959 25:-0.00231016 26:0.15508 27:-1 28:-1 29:-0.76928 30:-0.529915 31:-0.290978 
128 1:-0.0877923 2:-0.899956 3:-0.181477 4:0.759414 5:-0.602927 6:-0.333388 7:-0.570436 8:-0.295547 9:0.19389 10:-0.979063 11:0.359307 12:-0.0223009 13:-0.435261 14:-0.00884956 15:-0.674926 16:0.139898 17:-0.0168753 18:-0.415385 19:0.652307 20:-0.339233 21:-0.274164 22:0.155906 23:-0.639792 24:-0.546686 25:0.461261 26:0.101735 27:0.143819 28:0.151 29:-0.191563 30:-1 31:0.774262 
113.84339166718139 1:0.383686 2:0.178531 3:-0.171689 4:-0.670075 5:0.0231616 6:-0.3273 7:0.544054 8:-0.287123 9:0.20684 10:-0.48265 11:-0.378201 12:-0.669656 13:-0.835342 14:0.246071 15:-0.157287 16:0.706633 17:-0.010186 18:0.159615 19:-0.195784 20:-1 21:-0.415547 22:-0.708738 23:-0.304843 24:-0.54151 25:-0.031822 26:-0.385108 27:-0.682033 28:0.159714 29:-0.184343 30:-0.0134529 31:-0.722445 
128 1:-0.335587 2:0.487324 3:0.0696335 4:0.12282 5:-0.624418 6:0.32132 7:-0.361432 8:-0.079431 9:-0.492192 10:-0.495713 11:0.121389 12:-0.374549 13:-0.0559337 14:-0.0239651 15:0.423731 16:-0.705048 17:-0.276495 18:0.975059 19:0.258254 20:-1 21:0.166097 22:0.712621 23:0.308606 24:-0.787813 25:-0.474759 26:0.172135 27:-0.148047 28:-0.418985 29:-0.732927 30:-0.513274 31:0.504043 
82.52418390785131 1:0.335135 2:0.121775 3:0.0589117 4:-0.369325 5:-0.635022 6:-0.683206 7:0.286498 8:0.143056 9:-0.721096 10:-0.985537 11:-0.101394 12:-0.386087 13:-0.072946 14:0.454462 15:0.0345805 16:0.103585 17:-0.0365896 18:-0.434008 19:0.235382 20:-1 21:-0.018125 22:-0.157144 23:-0.665543 24:-0.332044 25:0.520698 26:-0.531708 27:-0.428652 28:-0.700228 29:0.0495495 30:-0.515419 31:0.000405505 
24.322975971267411 1:-0.610034 2:-0.288824 3:0.533555 4:0.834079 5:-0.982454 6:-0.380187 7:-0.609019 8:-0.587045 9:0.30879 10:-0.52083 11:0.875877 12:-0.124803 13:-0.821486 14:-0.0677616 15:-0.888681 16:-0.221357 17:-0.0683138 18:-0.463982 19:-0.043833 20:0.276353 21:-0.2869 22:0.645442 23:-0.393426 24:0.0884583 25:-0.0863895 26:0.472323 27:0.877951 28:-0.723849 29:-0.247062 30:-0.525862 31:0.204537 
21.61482852901425 1:-0.530498 2:-0.164872 3:0.664085 4:0.315089 5:-0.581053 6:-1 7:-0.560349 8:-0.278623 9:-0.676663 10:-0.478217 11:0.278267 12:0.336323 13:-0.403912 14:0.00653595 15:-0.269841 16:-0.113801 17:-0.254296 18:-0.117075 19:0.702651 20:0.333333 21:0.262867 22:-0.118306 23:0.0331229 24:-0.536287 25:-0.0110935 26:-0.171374 27:0.720508 28:-0.112845 29:-0.177058 30:-1 31:0.291971 
37.671614084979858 1:-0.0979511 2:-0.203219 3:-0.462806 4:0.0205486 5:-0.61372 6:-0.339422 7:0.304169 8:-0.303896 9:-0.261252 10:-0.491397 11:0.239824 12:-0.0355141 13:0.235869 14:0.473727 15:-0.185757 16:-0.421822 17:-0.271019 18:0.142001 19:0.28133 20:-0.342144 21:-0.458065 22:-0.71914 23:-0.325141 24:0.375889 25:0.310793 26:0.385492 27:-0.140629 28:-0.690487 29:-0.463459 30:-0.0222222 31:-0.482335 
8.1217288590966223 1:-0.118001 2:-0.228219 3:-0.479559 4:-0.0132159 5:-0.635022 6:-0.0194487 7:0.068567 8:-0.783802 9:0.155725 10:-0.499991 11:0.425522 12:-0.0615897 13:0.0631521 14:0.697406 15:0.655329 16:0.103585 17:-0.281923 18:-0.154656 19:0.57846 20:-1 21:0.78471 22:-0.729358 23:-0.345081 24:-0.791846 25:0.140524 26:0.0591504 27:-0.701906 28:0.400498 29:-1 30:-0.515419 31:-0.740238 
128 1:0.627744 2:0.193041 3:-0.437112 4:-0.7773 5:0.0368938 6:-0.660578 7:0.777093 8:0.195244 9:-0.00423586 10:-0.97465 11:-0.799088 12:0.0044843 13:0.0136619 14:0.751634 15:1 16:-0.392252 17:-0.505155 18:0.454157 19:0.00097122 20:-1 21:0.262867 22:-0.703466 23:-0.622238 24:-0.301254 25:0.248014 26:-0.574232 27:-0.676951 28:-0.394197 29:-0.98211 30:-0.504505 31:-0.465429 
20.51552805104641 1:-0.326525 2:0.503018 3:-0.462806 4:0.379823 5:-0.61372 6:-0.339422 7:0.304169 8:-0.771444 9:-0.0400986 10:-0.98124 11:0.452448 12:0.29188 13:-0.176088 14:-0.261524 15:-0.436293 16:0.127686 17:-0.0235052 18:0.142001 19:-0.757094 20:-0.342144 21:-0.296057 22:-0.141817 23:-0.648452 24:0.375889 25:0.0551101 26:0.484851 27:-0.416344 28:-0.135254 29:-0.198718 30:-0.0222222 31:-0.731421 
100.25710353843212 1:0.0868952 2:-0.25278 3:-0.496018 4:0.188942 5:0.242876 6:-0.363024 7:-0.162865 8:-0.106872 9:0.130837 10:-0.989759 11:0.294591 12:-0.0872079 13:-0.511218 14:-0.0461478 15:0.127967 16:0.619855 17:-0.292636 18:-0.169231 19:-1 20:-1 21:-0.0633951 22:-0.172202 23:-0.364672 24:0.567655 25:-0.278052 26:-0.26144 27:-0.711578 28:0.108566 29:-0.486784 30:-0.519651 31:-0.504185 
-30.039860978068539 1:0.288259 2:0.4109 3:-0.512193 4:0.270952 5:-0.973569 6:-0.374516 7:0.0379802 8:-0.807876 9:0.10638 10:-0.516734 11:0.683778 12:-0.750088 13:0.662816 14:-0.0606188 15:-0.634085 16:-0.211019 17:-0.303164 18:0.365517 19:0.314439 20:-1 21:0.207651 22:-0.46813 23:-0.383925 24:1 25:0.182403 26:0.100863 27:-0.989541 28:-0.989643 29:-0.498141 30:-0.047619 31:-1 
-29.32729642379136 1:-0.34457 2:0.121775 3:0.328147 4:-0.725435 5:-0.0305677 6:-0.351328 7:0.286498 8:-0.0886586 9:0.155725 10:-0.985537 11:-0.312161 12:-0.710584 13:-0.345142 14:-0.274367 15:0.0345805 16:0.648273 17:-0.0365896 18:0.404049 19:0.063843 20:-1 21:0.142442 22:-0.443251 23:-0.0246181 24:-0.561945 25:0.393974 26:-0.334755 27:-0.428652 28:-0.425047 29:-0.475225 30:-0.030837 31:-0.493357 
-41.004471248314942 1:0.421252 2:0.222458 3:0.413813 4:-0.259795 5:-0.247028 6:0.0338346 7:0.124807 8:-0.022304 9:-0.205964 10:0.0316932 11:-1 12:0.0317587 13:-0.512456 14:0.272802 15:0.0145564 16:0.470818 17:-0.242893 18:0.474835 19:-0.131195 20:-0.327327 21:-0.681753 22:0.48823 23:-0.604364 24:-0.5257 25:0.0309239 26:-0.449494 27:-0.102512 28:0.470227 29:-0.162286 30:-1 31:-0.199129 
-23.671080244226292 1:0.108567 2:-0.228219 3:0.328147 4:0.22419 5:-0.635022 6:0.644309 7:0.068567 8:-0.0886586 9:0.594135 10:-0.499991 11:0.952438 12:-0.0615897 13:0.607545 14:0.211519 15:-0.710317 16:0.375929 17:-0.527257 18:0.404049 19:0.406921 20:-1 21:-0.499826 22:-0.157144 23:0.295844 24:0.357659 25:-1 26:0.35458 27:-0.428652 28:-0.975409 29:-0.475225 30:0.453744 31:0.000405505 
-48.452308130244695 1:0.187507 2:-0.861084 3:0.969416 4:0.107645 5:-0.247028 6:-0.308701 7:-0.100154 8:-0.261391 9:0.246396 10:-0.469232 11:0.195767 12:-0.30311 13:0.470822 14:0.272802 15:-0.498062 16:-0.0911222 17:-0.496032 18:-0.389767 19:0.576894 20:-1 21:-0.51603 22:-0.397526 23:0.718272 24:-0.5257 25:0.423086 26:0.0586987 27:0.461624 28:0.186329 29:0.108527 30:-0.5 31:0.565188 
-76.720805129753742 1:0.222891 2:1 3:0.452218 4:-0.21069 5:0.107436 6:-0.289583 7:-0.762424 8:0.249837 9:0.516353 10:-0.455445 11:0.014094 12:-0.605423 13:-0.322987 14:-0.207807 15:0.0612669 16:0.513351 17:-0.225395 18:0.214397 19:-0.0648113 20:-1 21:0.0528232 22:-0.377023 23:0.0935248 24:-0.269058 25:-0.169634 26:-0.618734 27:-0.0787862 28:-0.0741271 29:-0.139613 30:0.0138249 31:-0.177898 
-2.8560592083070162 1:-0.505228 2:0.237369 3:0.147427 4:0.863778 5:-0.547499 6:0.729955 7:-0.54487 8:0.708058 9:-0.649029 10:-0.967881 11:-0.00983983 12:-0.963632 13:-0.355804 14:-0.473339 15:-0.613757 16:-0.361875 17:-1 18:0.485315 19:-0.10927 20:-0.324284 21:-0.32816 22:0.202458 23:-0.927474 24:-0.996781 25:0.708779 26:-0.130995 27:0.188697 28:0.195362 29:0.117262 30:0.00456621 31:0.831648 
-128 1:-0.0979511 2:-0.556338 3:-0.462806 4:0.0205486 5:-0.91861 6:0.665145 7:-0.135621 8:-0.771444 9:-0.70356 10:-0.00155402 11:0.239824 12:-0.690303 13:0.373187 14:0.228643 15:0.440583 16:-0.421822 17:0.224009 18:-0.421647 19:0.108259 20:-0.342144 21:0.189964 22:-0.71914 23:-0.325141 24:-0.319891 25:0.0551101 26:-0.310026 27:0.135086 28:-0.135254 29:-0.463459 30:-0.511111 31:-0.731421 
-102.13895126314826 1:0.153072 2:-0.534069 3:-0.445753 4:0.175751 5:-0.592039 6:0.686357 7:-0.121628 8:-0.0512518 9:-0.0162973 10:-0.976866 11:0.0508257 12:-0.339312 13:-0.142535 14:0.246071 15:-0.157287 16:-0.124989 17:0.239548 18:-0.124725 19:-0.0211538 20:-1 21:-0.252074 22:0.165049 23:0.347578 24:-0.307522 25:0.226133 26:-0.18459 27:0.152632 28:-0.120381 29:-0.45148 30:-1 31:0.0315437 
-65.435502990487024 1:-0.10802 2:0.135775 3:-0.47122 4:0.599733 5:0.589794 6:-0.678762 7:-0.361432 8:-0.312171 9:0.388509 10:-0.983398 11:0.33308 12:0.277329 13:-0.329345 14:0.220044 15:0.299025 16:0.389127 17:-0.769334 18:0.975059 19:-0.086349 20:-1 21:-0.156471 22:-0.436893 23:-0.657036 24:-0.325994 25:-0.347478 26:0.271051 27:-0.971483 28:-0.142592 29:-0.469368 30:-0.513274 31:-0.735849 
-120.31307915038086 1:-0.335587 2:-0.918873 3:0.0696335 4:0.00359166 5:-0.927971 6:-0.0120407 7:0.0763852 8:-0.544911 9:-0.0518413 10:-0.983398 11:0.33308 12:-0.0486099 13:-0.0559337 14:-0.0239651 15:-0.449213 16:-0.431505 17:-0.769334 18:0.413894 19:-0.086349 20:-0.345029 21:0.00481311 22:0.425243 23:-0.657036 24:0.135824 25:0.543487 26:-0.22353 27:-0.148047 28:-0.695379 29:-0.20581 30:-0.513274 31:1 
-45.340208396952868 1:0.0655971 2:0.0669933 3:0.016953 4:-0.545581 5:0.214587 6:-0.700598 7:-0.176128 8:-0.580174 9:-0.324439 10:-0.516734 11:-0.55911 12:0.206473 13:-0.674393 14:0.178154 15:0.0977444 16:0.591926 17:-0.0620788 18:0.365517 19:0.482995 20:-1 21:0.207651 22:-0.186999 23:0.560816 24:-0.581679 25:0.556051 26:-0.286162 27:-0.989541 28:-0.719206 29:-0.498141 30:0.428571 31:-0.514825 
-2.2131026247189598 1:0.276792 2:-0.288824 3:0.533555 4:0.0210648 5:-0.0951462 6:-0.380187 7:-0.182673 8:1 9:-0.763615 10:-0.52083 11:-0.258569 12:-0.75975 13:-0.288928 14:-0.543266 15:-0.281486 16:0.311642 17:0.411779 18:0.0827336 19:-0.379485 20:0.91453 21:-0.443977 22:0.0856134 23:0.233686 24:-0.586507 25:0.161645 26:-0.587369 27:0.0760903 28:-0.454572 29:-0.503746 30:-0.525862 31:-0.761613 
-128 1:0.627744 2:-0.522784 3:-0.712411 4:-0.534547 5:-0.27208 6:-0.660578 7:1 8:0.195244 9:0.892333 10:-0.97465 11:-0.368146 12:1 13:-0.821486 14:1 15:0.492063 16:0.164649 17:-0.756014 18:0.454157 19:-0.174449 20:0.333333 21:-0.393998 22:-0.118306 23:-0.294557 24:-0.77132 25:-0.140647 26:-0.0706595 27:-0.956443 28:-0.675548 29:-0.98211 30:-0.00900901 31:0.0395043 
-128 1:-0.317382 2:-0.545254 3:0.0913642 4:0.398536 5:-0.296688 6:-0.333388 7:-0.128656 8:-0.0607287 9:-0.0282511 10:-0.979063 11:-0.0678211 12:-0.351163 13:-0.711136 14:-0.00884956 15:-0.549091 16:0.415873 17:-0.0168753 18:-0.415385 19:-0.0430804 20:-0.339233 21:-0.274164 22:0.735818 23:-0.315037 24:-0.779639 25:0.204447 26:0.00192761 27:-0.133143 28:0.151 29:-0.191563 30:-1 31:0.524059 
-19.223054500627782 1:0.141797 2:-0.545254 3:0.0913642 4:0.639121 5:0.31579 6:-0.333388 7:-0.349546 8:-1 9:-0.250392 10:-0.487043 11:1 12:-0.0223009 13:-0.297324 14:-0.255018 15:-0.0457516 16:0.139898 17:-0.265495 18:-0.415385 19:-0.738467 20:-0.339233 21:0.0513094 22:0.445862 23:-0.315037 24:-0.0807809 25:-0.437588 26:0.00192761 27:0.420782 28:-0.685552 29:-0.457496 30:-0.508929 31:0.0236544 
-104.58268200516289 1:0.359196 2:0.856137 3:0.0804506 4:0.0205486 5:-0.61372 6:-0.674277 7:0.963853 8:-0.53767 9:-0.261252 10:-0.491397 11:0.346136 12:-0.0355141 13:0.510506 14:-0.0164406 15:0.0647791 16:-0.147068 17:-0.271019 18:-0.139823 19:-0.0648113 20:-1 21:0.189964 22:-0.141817 23:-0.325141 24:-0.0879645 25:0.438634 26:0.0874127 27:-0.692059 28:-0.968104 29:-0.463459 30:-0.511111 31:-0.731421 
-92.314669447741608 1:-0.513727 2:0.94482 3:-0.697394 4:-0.0148345 5:1 6:-0.308701 7:-0.550077 8:0.694958 9:-0.432144 10:-0.970158 11:-0.347763 12:0.0317587 13:-0.652924 14:-0.228405 15:0.527174 16:0.189848 17:-0.749172 18:0.763035 19:-0.131195 20:-1 21:0.146861 22:-0.102274 23:0.0569542 24:-1 25:-0.0997968 26:-0.449494 27:-0.948715 28:0.186329 29:-0.703911 30:1 31:-0.963446 
-117.92475079056886 1:1 2:0.107898 3:0.316338 4:-0.620788 5:0.257205 6:-0.357202 7:-0.373107 8:-0.328503 9:-0.947993 10:-0.987657 11:-0.532091 12:-0.0744553 13:-0.3608 14:0.92873 15:0.390476 16:-0.179462 17:-0.0430458 18:-0.161975 19:-0.128855 20:-0.350725 21:-0.200717 22:-0.449553 23:-0.35492 24:-0.338042 25:-0.385109 26:-0.641078 27:0.381391 28:-0.431055 29:-0.48103 30:-0.517544 31:-0.00720757 
