svm_type c_svc
kernel_type rbf
gamma 0.0001220703125
nr_class 2
total_sv 25
rho -16.66457031043991
label 1 0
probA -1.2249560586807131
probB -0.10357431953082685
nr_sv 14 11
SV
3818.128535388546 1:-0.557565 2:-0.0147637 3:-0.14751 4:-1 5:-0.0175875 6:0.0593371 7:-0.104425 8:-0.72343 9:-0.977406 10:-0.467004 11:-0.137756 12:-0.243684 13:0.22293 14:-0.107388 15:0.195838 16:-0.5 17:0.573413 18:0.185214 19:0.453745 20:-0.223586 21:-0.353524 22:0.698842 23:-0.605052 24:0.735556 25:-0.184738 26:0.239418 27:-0.312749 28:0.398693 29:-0.778784 
10575.320047742052 1:0.339156 2:-0.175321 3:0.166945 4:0.00446429 5:-0.00172315 6:0.0894017 7:0.493506 8:0.627994 9:-0.310383 10:-0.0113379 11:-0.406441 12:-0.221865 13:-0.169822 14:-0.88256 15:0.609173 16:-0.243274 17:0.365365 18:-0.475392 19:0.471885 20:0.176894 21:0.0895942 22:-0.142857 23:-0.233848 24:-0.23991 25:0.0266421 26:-0.2452 27:0.59534 28:-0.491629 29:-0.0709977 
13134.166155732521 1:0.086851 2:-0.658907 3:1 4:-0.504405 5:-0.0254125 6:-0.346359 7:-0.974209 8:-0.7282 9:0.324293 10:-0.622094 11:0.974995 12:0.227781 13:0.213749 14:0.672914 15:-0.205756 16:-0.502212 17:0.341235 18:-0.274875 19:0.155836 20:-0.613526 21:-0.360092 22:-1 23:-0.965711 24:-0.0221239 25:0.00276949 26:-0.504291 27:-0.760766 28:-0.51952 29:-0.332166 
2365.4438678236011 1:0.140704 2:0.308425 3:0.19106 4:-1 5:-0.996522 6:0.619697 7:-0.367076 8:0.379339 9:-0.965493 10:-0.117429 11:-0.679989 12:-0.446244 13:0.260501 14:-0.179234 15:-0.183188 16:-0.745475 17:0.610101 18:-0.229352 19:-0.100583 20:-0.202408 21:-0.326659 22:-0.423329 23:-0.400654 24:0.0339367 25:0.241901 26:0.0152637 27:0.394488 28:-0.00972862 29:-0.280491 
4340.0594182141767 1:0.0454472 2:-0.602932 3:0.370268 4:-0.025974 5:-0.0560201 6:-0.301555 7:-0.424321 8:-0.226709 9:-0.350801 10:-0.27069 11:0.375921 12:0.414145 13:-0.220788 14:0.0765697 15:0.165354 16:-0.0217391 17:-0.128578 18:-0.0891839 19:0.125814 20:0.507014 21:0.0309844 22:-0.169289 23:0.0652842 24:-0.0652174 25:-0.601348 26:-1 27:0.513876 28:1 29:-0.148483 
4089.8486136655333 1:-0.422495 2:0.138399 3:-0.247346 4:-0.523305 5:0.856897 6:0.198596 7:-0.177812 8:-0.76928 9:-0.37819 10:0.0510267 11:0.0597522 12:0.116498 13:0.914688 14:0.380047 15:-0.053879 16:-0.521277 17:0.0579297 18:-1 19:-0.466161 20:0.0965533 21:-0.620677 22:-0.187192 23:-1 24:-0.355319 25:-1 26:-0.0605671 27:-0.388008 28:-0.381433 29:0.236258 
4346.4062759280578 1:-0.120901 2:-0.0147637 3:0.143262 4:-0.502212 5:-0.513916 6:0.451946 7:-0.393081 8:-0.191563 9:-0.977406 10:0.232792 11:-0.419055 12:0.482889 13:0.22293 14:-0.773647 15:-0.00274237 16:-2.22045e-16 17:0.349206 18:0.185214 19:0.163507 20:-0.996565 21:0.072478 22:-0.71686 23:-0.248374 24:-0.0111111 25:0.401442 26:-0.0073782 27:0.129399 28:-0.0558069 29:0.363139 
3766.3576564242835 1:0.970759 2:0.166877 3:-0.14751 4:-1 5:0.478741 6:0.648251 7:-0.393081 8:-0.72343 9:-0.977406 10:0.0928327 11:-0.137756 12:0.240698 13:-1 14:-0.640395 15:-0.00274237 16:1 17:0.349206 18:-0.717078 19:-0.997443 20:0.162903 21:-0.353524 22:0.981982 23:1 24:-0.26 25:-0.380131 26:-0.500971 27:-0.0916746 28:-0.510307 29:-0.0936304 
7502.8030836651833 1:0.108105 2:-0.642028 3:-0.429113 4:-0.5 5:0.738186 6:-0.714437 7:-0.386667 8:-0.184343 9:-0.316312 10:-0.872886 11:0.152334 12:0.497008 13:-0.586798 14:-0.225498 15:-0.19685 16:-0.246652 17:-0.318386 18:0.422818 19:-0.703335 20:-0.218363 21:0.0809981 22:-0.146736 23:-0.241144 24:0.5 25:0.0186125 26:-0.745534 27:-0.0827922 28:0.412121 29:-0.311774 
2613.0461849273811 1:-0.35647 2:-0.217117 3:-0.168187 4:-0.0131579 5:-0.279106 6:-0.0674791 7:0.166507 8:-0.732927 9:-0.333785 10:0.0564308 11:0.962658 12:-0.265117 13:0.20465 14:0.389766 15:0.577113 16:-0.752203 17:1 18:-0.28374 19:-0.13946 20:-0.616946 21:0.0556622 22:-0.158163 23:-0.792902 24:-0.279736 25:-0.198695 26:0.47079 27:-0.985709 28:-0.52865 29:0.563228 
20823.814035328443 1:-0.54197 2:-0.0836897 3:0.460348 4:0.00446429 5:-0.502585 6:0.0894017 7:0.493506 8:-0.177058 9:-0.310383 10:0.412374 11:-0.122619 12:-0.466238 13:-0.169822 14:-0.344686 15:0.00804028 16:-0.747758 17:0.139139 18:-0.247805 19:0.764714 20:-0.60308 21:0.0895942 22:-0.714286 23:-0.233848 24:-0.491031 25:0.223812 26:0.50192 27:-0.296887 28:-0.0329782 29:0.389887 
2158.2855023049397 1:-0.373407 2:-0.415952 3:0.668444 4:-0.0217391 5:-0.292223 6:-0.481361 7:-0.134545 8:0.563875 9:-0.345179 10:-0.116795 11:0.109149 12:-0.286174 13:-0.614098 14:-0.0380975 15:-0.0237377 16:0.228166 17:0.538012 18:-0.0795887 19:0.133222 20:0.89502 21:0.0391388 22:-0.443742 23:-0.10146 24:0.189956 25:-0.404339 26:0.21321 27:-0.560853 28:-0.769877 29:0.0866732 
287.15700927441048 1:-0.54197 2:-0.725107 3:0.166945 4:-0.497768 5:-0.252154 6:-0.900963 7:-0.088961 8:-0.713759 9:-0.310383 10:-0.0113379 11:0.161204 12:-0.466238 13:0.241544 14:0.327657 15:0.00804028 16:-0.495516 17:-0.313313 18:-0.0202181 19:-0.406602 20:-0.213093 21:0.304497 22:-0.428571 23:-0.773707 24:-0.23991 25:0.618151 26:-0.49424 27:-0.743 28:-0.0329782 29:0.620329 
9420.1487857314842 1:0.559437 2:-1 3:0.166945 4:-0.497768 5:1 6:-0.801927 7:-0.671429 8:-0.98211 9:-0.971503 10:-0.576288 11:0.445026 12:0.266881 13:0.241544 14:1 15:-0.593093 16:0.765695 17:-0.313313 18:-0.0202181 19:-0.113773 20:-0.213093 21:-0.984919 22:0.142857 23:-0.0538952 24:0.764574 25:-0.564867 26:-0.49424 27:-0.519943 28:0.654997 29:0.389887 
-3282.0946203696021 1:-0.602737 2:-0.08053 3:0.357849 4:-0.515086 5:0.178102 6:0.163464 7:-0.149216 8:-0.233553 9:-0.994499 10:0.394331 11:-0.729581 12:-0.542737 13:-0.624681 14:-0.588151 15:-0.227338 16:-0.269481 17:0.084058 18:1 19:0.118471 20:-0.253965 21:-0.599576 22:-0.724311 23:0.577905 24:0.409091 25:-0.225873 26:-0.520455 27:0.502641 28:0.0993637 29:0.0632599 
-9184.4520383489962 1:-0.321689 2:-0.266952 3:0.166945 4:-0.497768 5:-0.502585 6:0.0894017 7:-0.671429 8:-0.445408 9:-0.310383 10:0.694849 11:0.445026 12:0.511254 13:-0.169822 14:-0.0757487 15:-0.192337 16:-0.495516 17:0.365365 18:-0.0202181 19:-0.406602 20:-0.213093 21:-0.125308 22:-0.142857 23:-0.0538952 24:-0.23991 25:-0.367697 26:-0.49424 27:0.372283 28:-0.720954 29:-0.30144 
-27.02484690383066 1:0.108105 2:1 3:-0.137032 4:-0.5 5:-0.508276 6:0.665856 7:-0.676606 8:-0.184343 9:-0.974468 10:-0.0293135 11:0.434889 12:0.0104538 13:-0.586798 14:-0.359355 15:0.401575 16:-0.246652 17:-0.0931739 18:-0.71006 19:-0.703335 20:-0.606593 21:-0.132949 22:0.137686 23:-0.241144 24:-2.22045e-16 25:-0.177665 26:-0.00179457 27:0.139269 28:0.640404 29:0.376453 
-15255.437355372205 1:-0.0815619 2:-0.153858 3:0.19106 4:-0.493243 5:0.519911 6:-0.279734 7:-0.660934 8:-0.703911 9:-0.298362 10:-0.259968 11:0.179183 12:0.540134 13:-0.154657 14:0.770722 15:0.0190199 16:-0.49095 17:-0.30303 18:-0.229352 19:0.194884 20:-0.202408 21:-0.543497 22:-0.711664 23:-0.0374611 24:0.28733 25:-0.156056 26:-0.236061 27:-0.505813 28:-0.241167 29:-0.0479535 
-1957.5409831926615 1:0.54671 2:0.361434 3:-0.137032 4:-0.5 5:-0.258984 6:0.764449 7:0.483152 8:-0.184343 9:-0.974468 10:0.392473 11:0.152334 12:0.0104538 13:-0.177302 14:-0.62707 15:0.60105 16:-0.246652 17:0.132038 18:-0.936636 19:-0.411808 20:0.169867 21:-0.132949 22:-1 23:-0.241144 24:-0.5 25:-0.177665 26:-0.745534 27:-0.304853 28:-0.50101 29:0.605862 
-4924.9026508529278 1:-0.140053 2:-0.0370704 3:-0.456374 4:-0.0131579 5:0.45871 6:-0.35933 7:0.738756 8:-0.732927 9:0.965054 10:-0.637089 11:0.126195 12:-0.505165 13:0.608637 14:-0.13846 15:-0.210149 16:-0.504405 17:-1 18:-0.507334 19:-0.13946 20:0.149162 21:-1 22:-0.158163 23:-0.616148 24:-0.0330396 25:-0.392343 26:-0.507582 27:-0.109205 28:0.822621 29:-0.56859 
-9164.7353668885044 1:0.0659683 2:-0.0480776 3:0.682347 4:-1 5:-0.285694 6:0.208944 7:-0.411989 8:-0.212838 9:-0.986066 10:0.0384736 11:-0.159964 12:-0.753672 13:0.597816 14:-0.679657 15:-0.410448 16:-0.259868 17:0.325502 18:-0.737764 19:1 20:0.142382 21:-0.162846 22:-0.161905 23:-0.445651 24:-0.535088 25:0.179996 26:0.46318 27:-0.117854 28:0.134921 29:-0.126832 
-14273.619924342043 1:0.0556631 2:-0.951396 3:0.382796 4:-0.51087 5:0.439035 6:-0.481361 7:0.149091 8:-0.219804 9:-0.345179 10:-0.254266 11:0.938307 12:0.189711 13:-0.213701 14:-0.299863 15:-0.218819 16:0.473799 17:0.0974659 18:0.142061 19:0.418412 20:0.135662 21:-0.379454 22:-0.443742 23:0.0737367 24:0.189956 25:0.171466 26:-0.271647 27:-0.560853 28:0.122963 29:0.535429 
-9722.8789444031445 1:-0.120901 2:0.0760565 3:-0.438282 4:-0.502212 5:-0.265752 6:0.353794 7:0.184232 8:-0.191563 9:-0.977406 10:0.372751 11:-0.137756 12:-0.485875 13:0.22293 14:-0.640395 15:0.99016 16:-0.75 17:0.125 18:-0.717078 19:-0.416968 20:-0.223586 21:0.072478 22:-0.433719 23:-0.96173 24:-0.26 25:-0.184738 26:-0.0073782 27:0.129399 28:-0.283057 29:-0.0936304 
-11043.417708890191 1:0.0763639 2:-0.577211 3:0.408187 4:0.480263 5:-0.279106 6:0.0298045 7:-0.691866 8:-0.20581 9:-0.333785 10:-0.0822733 11:0.126195 12:-0.505165 13:0.20465 14:-0.00640389 15:-0.0133333 16:-0.504405 17:0.777778 18:-0.0601457 19:0.435923 20:-1 21:0.0556622 22:-0.438776 23:-0.616148 24:0.460352 25:0.5759 26:0.226197 27:-0.109205 28:0.146986 29:0.110501 
-10404.8807325865 1:0.118874 2:-0.266952 3:0.166945 4:0.506696 5:-0.00172315 6:-0.70289 7:-0.088961 8:-0.445408 9:-0.310383 10:-1 11:0.445026 12:0.022508 13:-0.581188 14:-0.0757487 15:-0.192337 16:-0.243274 17:0.365365 18:-0.475392 19:0.179056 20:-0.213093 21:0.0895942 22:-0.142857 23:-0.233848 24:0.262332 25:0.0266421 26:0.00383982 27:-0.0738301 28:-0.262303 29:0.159444 
